5.170280678115389492e+03
-7.674129016639672507e-01
1.461878511620588597e+03
-2.076345681908522351e+02
2.904916355778414527e+03
-5.497281784761369750e+00
-1.083627337114684224e+02
-1.010802919859718374e+00
-1.673654310513465193e-01
-3.549480168263052349e+01
3.938474528045049965e+02
-4.875643038150942630e+02
6.047120294932983597e+02
-3.384452958331198719e-04
-9.702935603293084569e+03
9.263731355728856215e+03
-2.262559789674625108e+02
-7.718608460474791855e+01
-7.604934173896060656e+01
-8.481291413297401505e+01
-8.621519589043159613e+02
-9.486042047305195410e+02
-2.292500781236431067e+02
-5.568520988693899199e+02
-2.895754988165731447e+02
-2.740689145780673925e+02
-3.925594746462388684e+02
-2.404496622094370650e+02
6.208222618963350214e+01
-4.057730793243854350e+01
-4.849288940429687500e+01
1.742871779181773491e+03
3.401093171959449251e+02
2.581731985357960752e+02
3.853566606468952500e+02
1.937792477161850684e+03
-4.538471426524679941e+00
3.141086463300563025e+01
1.864874914348998800e+02
2.392609656972693131e+02
5.048198447426807434e+01
8.928191016350169207e+01
1.164518644816675135e+02
1.290345319160238375e+02
4.537148752282464415e+01
3.438266677757877687e+02
3.493879861462158942e+02
8.916854846870199935e+01
3.849600355004783410e+02
1.474940352770398704e+02
4.144842005437029684e+02
3.180982513796550961e+02
-3.957143863740050449e+01
-6.296771492131063042e+01
1.929397835468976155e+03
2.976937989895460746e+01
2.882997409108008924e+02
4.678447162452963681e+01
6.844934120058609324e+02
1.191099221981771876e+02
1.292175023853492576e+03
-2.719599833901488140e+01
5.983200098819061168e+02
-3.907713718331348929e+01
1.430912506705665805e+02
-8.241589593858876128e+00
5.286892382181281391e+01
2.883797851815439799e+02
-4.301114413806804748e+01
-2.399752487496562026e+03
8.784953904625069754e+01
-4.156847985005244084e+01
6.389919169950723017e+02
2.587450686589248505e+01
6.259177573140122774e+01
-3.175017985727467931e+03
6.160365998743187532e+01
2.351211841206728877e+03
4.212625209228146161e+01
2.503432909971325557e+02
5.352960167813330372e+02
-7.341275483435876481e+01
2.549357482759394600e+01
-7.840170853658516990e+02
8.654546365724914381e+01
1.050163194672681612e+02
3.205575831848039456e+02
7.906138252019751178e+01
4.052512640132257502e+02
1.494931444021063271e+03
2.359741895897436734e+02
4.324744315204890199e+01
2.324014313725279521e+02
9.795504258482023943e+02
1.044420617296944556e+03
-1.290394265432984184e+02
2.648424682364322962e+02
2.291298509164879960e+01
-1.006539860744694010e+02
1.515705748876322332e+02
6.594731014714434991e+01
-8.135668946517876066e+01
-4.057306509904197611e+01
8.526712648025497288e+01
4.680290576965226705e+02
6.091614363357295758e+01
7.332412350071898288e+01
5.685190373276758180e+01
-4.131464498988589895e+01
9.950691309602554213e+00
1.269190397102324141e+03
1.664534253619100355e+02
4.238341861626298055e+02
1.150531783526849949e+02
1.451352732887966113e+02
1.248226363157115770e+02
1.158625094242570128e+02
4.778500859939697420e+02
-1.516129052092593383e+02
5.281773266674529168e+02
1.877463913358777177e+02
-3.363544054224154934e+03
1.799778883836115142e+02
-3.731218569758055310e+03
8.078588327376302232e+02
-2.859032685057725303e+02
-7.486023172048121523e+02
-6.988159779736004111e+02
-1.082064471460092960e+02
2.081521296369110985e+02
4.303063374029834876e+01
-1.864886427919406515e+03
-1.368388259113369713e+03
-8.913854909130072883e+02
-1.114125364230353625e+02
3.868437527053317808e+02
-1.981446012726146364e+03
-1.449250671695861001e+03
-2.066467524519290237e+03
3.265827134252734254e+02
1.480534366597603650e+02
1.462944876039655355e+03
1.018971962575396475e+02
-3.910291397490193503e+03
1.033957006435969248e+02
-6.827083744813705835e+01
-1.888511978975730926e+03
1.004463875523802017e+03
-1.892307066669300411e+03
-3.524082817598391557e+02
1.792091848953436966e+03
6.186942248854777517e+02
-1.866818647320600803e+03
1.240460509981414134e+03
2.672196863517538645e+02
8.464944100268589864e+02
-6.453450738926636632e+01
-5.981384856388624485e+02
1.425987731122209880e+03
-1.489084016461069268e+03
-1.500899239174339073e+02
1.417304665123253926e+02
1.797871302348117695e+01
-3.728738687903928906e+01
5.458069663145220147e+02
-2.363629383578004763e+03
-1.403358694327440844e+03
-1.573026883924973163e+03
9.527713208039479298e+01
4.220811331339696153e+02
3.257856766119101849e+03
-4.688219974376599453e+02
7.782744872200819941e+01
-4.836229728558481042e+02
1.472822515305494164e+02
1.806835674044538962e+02
2.154954997703886761e+02
2.359108771340899011e+02
4.322010833356801413e+03
2.791011870911708229e+03
-2.486597291567108186e+03
-1.199260816813995234e+03
-5.959612144005798655e+03
-3.590277209865625537e+03
-2.326287366149042555e+03
1.008123293982425139e+03
1.340164828554255791e+02
-2.413574834616949374e+03
1.723850750090805661e+02
6.464882023942072919e+01
6.356300810630141314e+02
-9.208815208096707465e+02
1.731143486192424007e+03
7.971416025366297617e+02
-1.372342446007430226e+03
-4.228822491208084102e+03
1.056098908319782595e+03
1.834930587955887859e+03
-4.123839782409149279e+01
1.985394051900786963e+03
-1.989151977931362353e+03
8.721470798463481060e+02
-6.297867972059473686e+03
1.925689940671733666e+03
0.000000000000000000e+00
-4.450939568872611289e+02
-2.209177766284070685e+02
-2.073450985912396618e+02
-1.428603471155535658e+02
-1.718842039197942881e+02
-4.024981692940218636e+02
-1.455018918198756523e+02
-1.798033133114344650e+02
-1.547716489251197345e+02
-4.832174465773498468e+02
3.507189776793495639e+01
6.792217903211595740e+02
1.422359658293810583e+02
5.255656858562042544e+02
-5.474435563515099830e+02
3.884274905226315866e+01
1.136059209110696457e+02
4.443399302345440560e+02
4.859049460265183598e+02
2.868776044842328247e+03
4.715119740452263386e+02
-1.647022216278016231e+03
7.989413864371601903e+01
1.920136979891996702e+02
6.244740630702833073e+01
1.327818028695908765e+02
1.623905137595539259e+02
1.457221923390004292e+02
-2.684549746944247772e+01
8.114728777070385490e+01
-2.718210262047503420e+03
9.693348058470247963e+01
7.355513773099622199e+01
7.610702882198609132e+01
1.077822099654111412e+02
1.124764226859433620e+02
1.931563155550995248e+01
1.400872628901227870e+02
4.995391552289586912e+01
4.813973341085635980e+02
4.950391756496213702e+01
4.496792719903968418e+02
2.094128601654423107e+02
2.653688811469881443e+02
-2.195113661368889552e+03
-2.187213381133947365e+01
-2.306966496133716760e+02
-5.032511558230719402e+02
2.992444356884711283e+02
-1.298781132547816469e+03
-4.990483205053119491e+03
-5.698723148413984063e+01
-2.039151850872833620e+03
-2.273238389662561531e+03
-3.443838627392694640e+00
4.887402565545423272e+02
-3.376532762268381305e+01
-1.067368923528200497e+01
-2.939127029373095112e+01
3.513324680517266785e+01
4.250866565874016345e-01
-4.958059294357756244e+02
5.870721601500301404e+03
1.744548004448667200e+01
-5.900250336472150359e+00
-3.949797274397986257e+03
-3.428586952038422453e+00
6.874263281448156704e+02
-1.409404760241321242e+01
-1.439004069416978382e+02
-4.266112283244859782e+01
3.965928269101183901e+00
7.074684429557136500e-01
-1.248727313597627813e+02
4.178874436880286680e+01
-4.273109626696741259e+01
2.576863805608924736e+02
-2.173657903517334589e+01
-1.210831543676963520e+02
-2.219590185473678190e+01
-6.183237566705344079e+01
1.835459354551589684e+02
-8.802362534739717148e+01
-1.061221044302673278e+01
3.453256876452078927e+02
-2.740757185161218956e+01
-1.469824183308444390e+03
1.061084069003819195e+03
3.699981760207010950e+01
-4.253416489690071103e+03
-1.266399393057028107e+02
-9.503559508341147932e+00
-1.195006225444238339e+02
6.489872725595728298e+01
-1.915068623182236252e+01
3.342762444333084204e+02
-1.340893535267419338e+03
7.144645195602470267e+01
-3.482276053468319787e+02
-7.507793962066642734e+00
-4.044557341531209715e+01
3.530320983618415198e+01
-1.329083676786935797e+01
-2.224909586898195357e+01
1.847204357945575339e+03
3.176792889122063571e+03
-9.556858218471257942e+02
1.810993344693990821e+02
5.327600542736513489e+01
2.287045971249701779e+02
1.806132755711046229e+02
-1.157067473014476491e+02
-1.807532212864477970e+02
3.625682751821159400e+01
3.700804843102503128e+00
3.529772313380885862e+01
3.620598183634763245e+01
2.307348103899073521e+01
4.071263622131652937e+00
-6.079962644761474166e+01
-1.002005842387698635e+02
-5.298049239454421695e+02
-5.911085204599876306e+02
8.905711001029885665e+01
2.879545188766344381e+02
-3.230413539046480764e+00
5.871904751068223050e+01
-2.101076342840151483e+02
-1.567991914730082499e+02
-2.726608723367875342e+01
-1.331068380933152184e+01
-1.841090393066406250e+01
-3.008210754394531250e+01
